digraph Tree {
node [shape=box, style="filled, rounded", color="black", fontname=helvetica] ;
edge [fontname=helvetica] ;
0 [label="PetalLengthCm <= 2.6\nmse = 0.543\nsamples = 112\nvalue = 1.241", fillcolor="#f3c3a1"] ;
1 [label="SepalLengthCm <= 4.95\nmse = 0.013\nsamples = 33\nvalue = 0.248", fillcolor="#fdf7f3"] ;
0 -> 1 [labeldistance=2.5, labelangle=45, headlabel="True"] ;
2 [label="SepalLengthCm <= 4.85\nmse = 0.003\nsamples = 12\nvalue = 0.183", fillcolor="#fefbf8"] ;
1 -> 2 ;
3 [label="SepalLengthCm <= 4.35\nmse = 0.002\nsamples = 9\nvalue = 0.2", fillcolor="#fefaf7"] ;
2 -> 3 ;
4 [label="mse = 0.0\nsamples = 1\nvalue = 0.1", fillcolor="#ffffff"] ;
3 -> 4 ;
5 [label="SepalWidthCm <= 3.05\nmse = 0.001\nsamples = 8\nvalue = 0.212", fillcolor="#fef9f6"] ;
3 -> 5 ;
6 [label="PetalLengthCm <= 1.35\nmse = 0.003\nsamples = 2\nvalue = 0.25", fillcolor="#fdf7f3"] ;
5 -> 6 ;
7 [label="mse = 0.0\nsamples = 1\nvalue = 0.2", fillcolor="#fefaf7"] ;
6 -> 7 ;
8 [label="mse = 0.0\nsamples = 1\nvalue = 0.3", fillcolor="#fdf4ee"] ;
6 -> 8 ;
9 [label="SepalWidthCm <= 3.15\nmse = 0.0\nsamples = 6\nvalue = 0.2", fillcolor="#fefaf7"] ;
5 -> 9 ;
10 [label="mse = 0.0\nsamples = 1\nvalue = 0.2", fillcolor="#fefaf7"] ;
9 -> 10 ;
11 [label="mse = 0.0\nsamples = 5\nvalue = 0.2", fillcolor="#fefaf7"] ;
9 -> 11 ;
12 [label="SepalWidthCm <= 3.05\nmse = 0.002\nsamples = 3\nvalue = 0.133", fillcolor="#fffdfc"] ;
2 -> 12 ;
13 [label="mse = 0.0\nsamples = 1\nvalue = 0.2", fillcolor="#fefaf7"] ;
12 -> 13 ;
14 [label="mse = 0.0\nsamples = 2\nvalue = 0.1", fillcolor="#ffffff"] ;
12 -> 14 ;
15 [label="PetalLengthCm <= 1.55\nmse = 0.015\nsamples = 21\nvalue = 0.286", fillcolor="#fdf5f0"] ;
1 -> 15 ;
16 [label="SepalWidthCm <= 4.3\nmse = 0.007\nsamples = 16\nvalue = 0.25", fillcolor="#fdf7f3"] ;
15 -> 16 ;
17 [label="SepalWidthCm <= 3.9\nmse = 0.006\nsamples = 15\nvalue = 0.24", fillcolor="#fdf8f3"] ;
16 -> 17 ;
18 [label="SepalWidthCm <= 3.35\nmse = 0.006\nsamples = 12\nvalue = 0.258", fillcolor="#fdf7f2"] ;
17 -> 18 ;
19 [label="mse = 0.0\nsamples = 2\nvalue = 0.2", fillcolor="#fefaf7"] ;
18 -> 19 ;
20 [label="SepalLengthCm <= 5.15\nmse = 0.006\nsamples = 10\nvalue = 0.27", fillcolor="#fdf6f1"] ;
18 -> 20 ;
21 [label="PetalLengthCm <= 1.45\nmse = 0.004\nsamples = 5\nvalue = 0.3", fillcolor="#fdf4ee"] ;
20 -> 21 ;
22 [label="PetalLengthCm <= 1.35\nmse = 0.002\nsamples = 3\nvalue = 0.267", fillcolor="#fdf6f1"] ;
21 -> 22 ;
23 [label="mse = 0.0\nsamples = 1\nvalue = 0.3", fillcolor="#fdf4ee"] ;
22 -> 23 ;
24 [label="mse = 0.003\nsamples = 2\nvalue = 0.25", fillcolor="#fdf7f3"] ;
22 -> 24 ;
25 [label="SepalWidthCm <= 3.75\nmse = 0.003\nsamples = 2\nvalue = 0.35", fillcolor="#fcf2ea"] ;
21 -> 25 ;
26 [label="mse = 0.0\nsamples = 1\nvalue = 0.4", fillcolor="#fcefe6"] ;
25 -> 26 ;
27 [label="mse = 0.0\nsamples = 1\nvalue = 0.3", fillcolor="#fdf4ee"] ;
25 -> 27 ;
28 [label="SepalLengthCm <= 5.35\nmse = 0.006\nsamples = 5\nvalue = 0.24", fillcolor="#fdf8f3"] ;
20 -> 28 ;
29 [label="mse = -0.0\nsamples = 3\nvalue = 0.2", fillcolor="#fefaf7"] ;
28 -> 29 ;
30 [label="SepalWidthCm <= 3.55\nmse = 0.01\nsamples = 2\nvalue = 0.3", fillcolor="#fdf4ee"] ;
28 -> 30 ;
31 [label="mse = 0.0\nsamples = 1\nvalue = 0.4", fillcolor="#fcefe6"] ;
30 -> 31 ;
32 [label="mse = -0.0\nsamples = 1\nvalue = 0.2", fillcolor="#fefaf7"] ;
30 -> 32 ;
33 [label="SepalLengthCm <= 5.35\nmse = 0.002\nsamples = 3\nvalue = 0.167", fillcolor="#fefcfa"] ;
17 -> 33 ;
34 [label="mse = 0.0\nsamples = 1\nvalue = 0.1", fillcolor="#ffffff"] ;
33 -> 34 ;
35 [label="mse = 0.0\nsamples = 2\nvalue = 0.2", fillcolor="#fefaf7"] ;
33 -> 35 ;
36 [label="mse = 0.0\nsamples = 1\nvalue = 0.4", fillcolor="#fcefe6"] ;
16 -> 36 ;
37 [label="SepalLengthCm <= 5.25\nmse = 0.02\nsamples = 5\nvalue = 0.4", fillcolor="#fcefe6"] ;
15 -> 37 ;
38 [label="SepalWidthCm <= 3.4\nmse = 0.002\nsamples = 2\nvalue = 0.55", fillcolor="#fae7da"] ;
37 -> 38 ;
39 [label="mse = 0.0\nsamples = 1\nvalue = 0.5", fillcolor="#fbeade"] ;
38 -> 39 ;
40 [label="mse = -0.0\nsamples = 1\nvalue = 0.6", fillcolor="#fae5d6"] ;
38 -> 40 ;
41 [label="SepalWidthCm <= 3.6\nmse = 0.007\nsamples = 3\nvalue = 0.3", fillcolor="#fdf4ee"] ;
37 -> 41 ;
42 [label="mse = 0.0\nsamples = 1\nvalue = 0.2", fillcolor="#fefaf7"] ;
41 -> 42 ;
43 [label="SepalLengthCm <= 5.55\nmse = 0.003\nsamples = 2\nvalue = 0.35", fillcolor="#fcf2ea"] ;
41 -> 43 ;
44 [label="mse = 0.0\nsamples = 1\nvalue = 0.4", fillcolor="#fcefe6"] ;
43 -> 44 ;
45 [label="mse = 0.0\nsamples = 1\nvalue = 0.3", fillcolor="#fdf4ee"] ;
43 -> 45 ;
46 [label="PetalLengthCm <= 4.75\nmse = 0.181\nsamples = 79\nvalue = 1.656", fillcolor="#eead7f"] ;
0 -> 46 [labeldistance=2.5, labelangle=-45, headlabel="False"] ;
47 [label="PetalLengthCm <= 4.25\nmse = 0.035\nsamples = 37\nvalue = 1.295", fillcolor="#f2c09c"] ;
46 -> 47 ;
48 [label="SepalWidthCm <= 2.45\nmse = 0.021\nsamples = 18\nvalue = 1.167", fillcolor="#f3c7a7"] ;
47 -> 48 ;
49 [label="mse = 0.0\nsamples = 5\nvalue = 1.0", fillcolor="#f5d0b5"] ;
48 -> 49 ;
50 [label="PetalLengthCm <= 3.55\nmse = 0.014\nsamples = 13\nvalue = 1.231", fillcolor="#f3c4a2"] ;
48 -> 50 ;
51 [label="mse = 0.0\nsamples = 1\nvalue = 1.0", fillcolor="#f5d0b5"] ;
50 -> 51 ;
52 [label="SepalLengthCm <= 5.75\nmse = 0.011\nsamples = 12\nvalue = 1.25", fillcolor="#f3c3a0"] ;
50 -> 52 ;
53 [label="SepalLengthCm <= 5.35\nmse = 0.006\nsamples = 9\nvalue = 1.278", fillcolor="#f2c19e"] ;
52 -> 53 ;
54 [label="mse = 0.0\nsamples = 1\nvalue = 1.4", fillcolor="#f1bb94"] ;
53 -> 54 ;
55 [label="SepalWidthCm <= 2.6\nmse = 0.005\nsamples = 8\nvalue = 1.263", fillcolor="#f2c29f"] ;
53 -> 55 ;
56 [label="PetalLengthCm <= 3.95\nmse = 0.01\nsamples = 2\nvalue = 1.2", fillcolor="#f3c5a4"] ;
55 -> 56 ;
57 [label="mse = 0.0\nsamples = 1\nvalue = 1.1", fillcolor="#f4caac"] ;
56 -> 57 ;
58 [label="mse = -0.0\nsamples = 1\nvalue = 1.3", fillcolor="#f2c09c"] ;
56 -> 58 ;
59 [label="SepalWidthCm <= 2.95\nmse = 0.001\nsamples = 6\nvalue = 1.283", fillcolor="#f2c19d"] ;
55 -> 59 ;
60 [label="mse = 0.0\nsamples = 4\nvalue = 1.3", fillcolor="#f2c09c"] ;
59 -> 60 ;
61 [label="SepalLengthCm <= 5.65\nmse = 0.002\nsamples = 2\nvalue = 1.25", fillcolor="#f3c3a0"] ;
59 -> 61 ;
62 [label="mse = 0.0\nsamples = 1\nvalue = 1.3", fillcolor="#f2c09c"] ;
61 -> 62 ;
63 [label="mse = -0.0\nsamples = 1\nvalue = 1.2", fillcolor="#f3c5a4"] ;
61 -> 63 ;
64 [label="PetalLengthCm <= 4.05\nmse = 0.016\nsamples = 3\nvalue = 1.167", fillcolor="#f3c7a7"] ;
52 -> 64 ;
65 [label="SepalLengthCm <= 5.95\nmse = 0.002\nsamples = 2\nvalue = 1.25", fillcolor="#f3c3a0"] ;
64 -> 65 ;
66 [label="mse = 0.0\nsamples = 1\nvalue = 1.2", fillcolor="#f3c5a4"] ;
65 -> 66 ;
67 [label="mse = -0.0\nsamples = 1\nvalue = 1.3", fillcolor="#f2c09c"] ;
65 -> 67 ;
68 [label="mse = 0.0\nsamples = 1\nvalue = 1.0", fillcolor="#f5d0b5"] ;
64 -> 68 ;
69 [label="PetalLengthCm <= 4.45\nmse = 0.018\nsamples = 19\nvalue = 1.416", fillcolor="#f1ba92"] ;
47 -> 69 ;
70 [label="SepalLengthCm <= 6.5\nmse = 0.005\nsamples = 6\nvalue = 1.317", fillcolor="#f2bf9b"] ;
69 -> 70 ;
71 [label="SepalLengthCm <= 5.85\nmse = 0.002\nsamples = 4\nvalue = 1.275", fillcolor="#f2c19e"] ;
70 -> 71 ;
72 [label="mse = 0.0\nsamples = 1\nvalue = 1.2", fillcolor="#f3c5a4"] ;
71 -> 72 ;
73 [label="SepalWidthCm <= 2.6\nmse = 0.0\nsamples = 3\nvalue = 1.3", fillcolor="#f2c09c"] ;
71 -> 73 ;
74 [label="mse = 0.0\nsamples = 1\nvalue = 1.3", fillcolor="#f2c09c"] ;
73 -> 74 ;
75 [label="mse = -0.0\nsamples = 2\nvalue = 1.3", fillcolor="#f2c09c"] ;
73 -> 75 ;
76 [label="mse = -0.0\nsamples = 2\nvalue = 1.4", fillcolor="#f1bb94"] ;
70 -> 76 ;
77 [label="SepalLengthCm <= 5.15\nmse = 0.018\nsamples = 13\nvalue = 1.462", fillcolor="#f0b88f"] ;
69 -> 77 ;
78 [label="mse = 0.0\nsamples = 1\nvalue = 1.7", fillcolor="#eeab7b"] ;
77 -> 78 ;
79 [label="SepalWidthCm <= 3.25\nmse = 0.014\nsamples = 12\nvalue = 1.442", fillcolor="#f0b990"] ;
77 -> 79 ;
80 [label="SepalWidthCm <= 2.85\nmse = 0.011\nsamples = 10\nvalue = 1.41", fillcolor="#f1ba93"] ;
79 -> 80 ;
81 [label="SepalWidthCm <= 2.5\nmse = 0.016\nsamples = 3\nvalue = 1.333", fillcolor="#f2be99"] ;
80 -> 81 ;
82 [label="mse = 0.0\nsamples = 1\nvalue = 1.5", fillcolor="#f0b68c"] ;
81 -> 82 ;
83 [label="PetalLengthCm <= 4.6\nmse = 0.003\nsamples = 2\nvalue = 1.25", fillcolor="#f3c3a0"] ;
81 -> 83 ;
84 [label="mse = 0.0\nsamples = 1\nvalue = 1.3", fillcolor="#f2c09c"] ;
83 -> 84 ;
85 [label="mse = -0.0\nsamples = 1\nvalue = 1.2", fillcolor="#f3c5a4"] ;
83 -> 85 ;
86 [label="PetalLengthCm <= 4.55\nmse = 0.005\nsamples = 7\nvalue = 1.443", fillcolor="#f0b890"] ;
80 -> 86 ;
87 [label="mse = 0.0\nsamples = 3\nvalue = 1.5", fillcolor="#f0b68c"] ;
86 -> 87 ;
88 [label="SepalWidthCm <= 2.95\nmse = 0.005\nsamples = 4\nvalue = 1.4", fillcolor="#f1bb94"] ;
86 -> 88 ;
89 [label="mse = 0.0\nsamples = 1\nvalue = 1.3", fillcolor="#f2c09c"] ;
88 -> 89 ;
90 [label="SepalWidthCm <= 3.05\nmse = 0.002\nsamples = 3\nvalue = 1.433", fillcolor="#f1b991"] ;
88 -> 90 ;
91 [label="mse = 0.0\nsamples = 1\nvalue = 1.4", fillcolor="#f1bb94"] ;
90 -> 91 ;
92 [label="SepalLengthCm <= 6.85\nmse = 0.002\nsamples = 2\nvalue = 1.45", fillcolor="#f0b890"] ;
90 -> 92 ;
93 [label="mse = 0.0\nsamples = 1\nvalue = 1.5", fillcolor="#f0b68c"] ;
92 -> 93 ;
94 [label="mse = 0.0\nsamples = 1\nvalue = 1.4", fillcolor="#f1bb94"] ;
92 -> 94 ;
95 [label="mse = 0.0\nsamples = 2\nvalue = 1.6", fillcolor="#efb083"] ;
79 -> 95 ;
96 [label="SepalWidthCm <= 3.05\nmse = 0.093\nsamples = 42\nvalue = 1.974", fillcolor="#eb9d64"] ;
46 -> 96 ;
97 [label="SepalWidthCm <= 2.75\nmse = 0.07\nsamples = 28\nvalue = 1.861", fillcolor="#eca36e"] ;
96 -> 97 ;
98 [label="SepalLengthCm <= 5.9\nmse = 0.04\nsamples = 10\nvalue = 1.73", fillcolor="#eda979"] ;
97 -> 98 ;
99 [label="PetalLengthCm <= 5.05\nmse = 0.002\nsamples = 2\nvalue = 1.95", fillcolor="#eb9e66"] ;
98 -> 99 ;
100 [label="mse = 0.0\nsamples = 1\nvalue = 2.0", fillcolor="#ea9b62"] ;
99 -> 100 ;
101 [label="mse = -0.0\nsamples = 1\nvalue = 1.9", fillcolor="#eca06a"] ;
99 -> 101 ;
102 [label="SepalLengthCm <= 6.2\nmse = 0.034\nsamples = 8\nvalue = 1.675", fillcolor="#eeac7d"] ;
98 -> 102 ;
103 [label="PetalLengthCm <= 5.35\nmse = 0.007\nsamples = 3\nvalue = 1.5", fillcolor="#f0b68c"] ;
102 -> 103 ;
104 [label="SepalWidthCm <= 2.45\nmse = 0.002\nsamples = 2\nvalue = 1.55", fillcolor="#efb387"] ;
103 -> 104 ;
105 [label="mse = 0.0\nsamples = 1\nvalue = 1.5", fillcolor="#f0b68c"] ;
104 -> 105 ;
106 [label="mse = 0.0\nsamples = 1\nvalue = 1.6", fillcolor="#efb083"] ;
104 -> 106 ;
107 [label="mse = 0.0\nsamples = 1\nvalue = 1.4", fillcolor="#f1bb94"] ;
103 -> 107 ;
108 [label="PetalLengthCm <= 4.95\nmse = 0.022\nsamples = 5\nvalue = 1.78", fillcolor="#eda774"] ;
102 -> 108 ;
109 [label="SepalWidthCm <= 2.6\nmse = 0.023\nsamples = 2\nvalue = 1.65", fillcolor="#eeae7f"] ;
108 -> 109 ;
110 [label="mse = 0.0\nsamples = 1\nvalue = 1.5", fillcolor="#f0b68c"] ;
109 -> 110 ;
111 [label="mse = 0.0\nsamples = 1\nvalue = 1.8", fillcolor="#eda673"] ;
109 -> 111 ;
112 [label="PetalLengthCm <= 5.55\nmse = 0.002\nsamples = 3\nvalue = 1.867", fillcolor="#eca26d"] ;
108 -> 112 ;
113 [label="mse = 0.0\nsamples = 2\nvalue = 1.9", fillcolor="#eca06a"] ;
112 -> 113 ;
114 [label="mse = 0.0\nsamples = 1\nvalue = 1.8", fillcolor="#eda673"] ;
112 -> 114 ;
115 [label="PetalLengthCm <= 5.05\nmse = 0.071\nsamples = 18\nvalue = 1.933", fillcolor="#eb9f68"] ;
97 -> 115 ;
116 [label="SepalLengthCm <= 6.75\nmse = 0.038\nsamples = 5\nvalue = 1.74", fillcolor="#eda978"] ;
115 -> 116 ;
117 [label="SepalLengthCm <= 5.8\nmse = 0.012\nsamples = 4\nvalue = 1.825", fillcolor="#eca471"] ;
116 -> 117 ;
118 [label="mse = 0.0\nsamples = 1\nvalue = 2.0", fillcolor="#ea9b62"] ;
117 -> 118 ;
119 [label="SepalLengthCm <= 6.45\nmse = 0.002\nsamples = 3\nvalue = 1.767", fillcolor="#eda876"] ;
117 -> 119 ;
120 [label="SepalLengthCm <= 6.1\nmse = 0.0\nsamples = 2\nvalue = 1.8", fillcolor="#eda673"] ;
119 -> 120 ;
121 [label="mse = 0.0\nsamples = 1\nvalue = 1.8", fillcolor="#eda673"] ;
120 -> 121 ;
122 [label="mse = 0.0\nsamples = 1\nvalue = 1.8", fillcolor="#eda673"] ;
120 -> 122 ;
123 [label="mse = 0.0\nsamples = 1\nvalue = 1.7", fillcolor="#eeab7b"] ;
119 -> 123 ;
124 [label="mse = -0.0\nsamples = 1\nvalue = 1.4", fillcolor="#f1bb94"] ;
116 -> 124 ;
125 [label="SepalLengthCm <= 5.85\nmse = 0.064\nsamples = 13\nvalue = 2.008", fillcolor="#ea9b62"] ;
115 -> 125 ;
126 [label="mse = 0.0\nsamples = 1\nvalue = 2.4", fillcolor="#e68641"] ;
125 -> 126 ;
127 [label="SepalLengthCm <= 6.35\nmse = 0.055\nsamples = 12\nvalue = 1.975", fillcolor="#eb9d64"] ;
125 -> 127 ;
128 [label="SepalWidthCm <= 2.85\nmse = 0.02\nsamples = 3\nvalue = 1.7", fillcolor="#eeab7b"] ;
127 -> 128 ;
129 [label="mse = 0.0\nsamples = 1\nvalue = 1.5", fillcolor="#f0b68c"] ;
128 -> 129 ;
130 [label="SepalWidthCm <= 2.95\nmse = 0.0\nsamples = 2\nvalue = 1.8", fillcolor="#eda673"] ;
128 -> 130 ;
131 [label="mse = 0.0\nsamples = 1\nvalue = 1.8", fillcolor="#eda673"] ;
130 -> 131 ;
132 [label="mse = 0.0\nsamples = 1\nvalue = 1.8", fillcolor="#eda673"] ;
130 -> 132 ;
133 [label="SepalLengthCm <= 7.65\nmse = 0.033\nsamples = 9\nvalue = 2.067", fillcolor="#ea985d"] ;
127 -> 133 ;
134 [label="PetalLengthCm <= 5.35\nmse = 0.03\nsamples = 8\nvalue = 2.037", fillcolor="#ea995f"] ;
133 -> 134 ;
135 [label="mse = 0.0\nsamples = 1\nvalue = 2.3", fillcolor="#e78c4a"] ;
134 -> 135 ;
136 [label="SepalLengthCm <= 6.45\nmse = 0.023\nsamples = 7\nvalue = 2.0", fillcolor="#ea9b62"] ;
134 -> 136 ;
137 [label="mse = 0.002\nsamples = 2\nvalue = 2.15", fillcolor="#e99356"] ;
136 -> 137 ;
138 [label="SepalLengthCm <= 7.5\nmse = 0.018\nsamples = 5\nvalue = 1.94", fillcolor="#eb9e67"] ;
136 -> 138 ;
139 [label="PetalLengthCm <= 6.2\nmse = 0.015\nsamples = 4\nvalue = 1.9", fillcolor="#eca06a"] ;
138 -> 139 ;
140 [label="SepalLengthCm <= 6.65\nmse = 0.016\nsamples = 3\nvalue = 1.933", fillcolor="#eb9f68"] ;
139 -> 140 ;
141 [label="mse = 0.0\nsamples = 1\nvalue = 1.8", fillcolor="#eda673"] ;
140 -> 141 ;
142 [label="SepalLengthCm <= 7.1\nmse = 0.01\nsamples = 2\nvalue = 2.0", fillcolor="#ea9b62"] ;
140 -> 142 ;
143 [label="mse = 0.0\nsamples = 1\nvalue = 2.1", fillcolor="#e9965a"] ;
142 -> 143 ;
144 [label="mse = -0.0\nsamples = 1\nvalue = 1.9", fillcolor="#eca06a"] ;
142 -> 144 ;
145 [label="mse = 0.0\nsamples = 1\nvalue = 1.8", fillcolor="#eda673"] ;
139 -> 145 ;
146 [label="mse = 0.0\nsamples = 1\nvalue = 2.1", fillcolor="#e9965a"] ;
138 -> 146 ;
147 [label="mse = 0.0\nsamples = 1\nvalue = 2.3", fillcolor="#e78c4a"] ;
133 -> 147 ;
148 [label="SepalWidthCm <= 3.25\nmse = 0.063\nsamples = 14\nvalue = 2.2", fillcolor="#e89152"] ;
96 -> 148 ;
149 [label="SepalLengthCm <= 6.6\nmse = 0.053\nsamples = 10\nvalue = 2.11", fillcolor="#e99559"] ;
148 -> 149 ;
150 [label="SepalWidthCm <= 3.15\nmse = 0.042\nsamples = 4\nvalue = 1.975", fillcolor="#eb9d64"] ;
149 -> 150 ;
151 [label="mse = 0.0\nsamples = 1\nvalue = 1.8", fillcolor="#eda673"] ;
150 -> 151 ;
152 [label="PetalLengthCm <= 5.2\nmse = 0.042\nsamples = 3\nvalue = 2.033", fillcolor="#ea9a60"] ;
150 -> 152 ;
153 [label="PetalLengthCm <= 4.95\nmse = 0.01\nsamples = 2\nvalue = 1.9", fillcolor="#eca06a"] ;
152 -> 153 ;
154 [label="mse = 0.0\nsamples = 1\nvalue = 1.8", fillcolor="#eda673"] ;
153 -> 154 ;
155 [label="mse = 0.0\nsamples = 1\nvalue = 2.0", fillcolor="#ea9b62"] ;
153 -> 155 ;
156 [label="mse = 0.0\nsamples = 1\nvalue = 2.3", fillcolor="#e78c4a"] ;
152 -> 156 ;
157 [label="SepalLengthCm <= 7.05\nmse = 0.04\nsamples = 6\nvalue = 2.2", fillcolor="#e89152"] ;
149 -> 157 ;
158 [label="PetalLengthCm <= 5.5\nmse = 0.01\nsamples = 5\nvalue = 2.28", fillcolor="#e78d4b"] ;
157 -> 158 ;
159 [label="PetalLengthCm <= 5.25\nmse = 0.01\nsamples = 2\nvalue = 2.2", fillcolor="#e89152"] ;
158 -> 159 ;
160 [label="mse = 0.0\nsamples = 1\nvalue = 2.3", fillcolor="#e78c4a"] ;
159 -> 160 ;
161 [label="mse = -0.0\nsamples = 1\nvalue = 2.1", fillcolor="#e9965a"] ;
159 -> 161 ;
162 [label="PetalLengthCm <= 5.65\nmse = 0.002\nsamples = 3\nvalue = 2.333", fillcolor="#e78a47"] ;
158 -> 162 ;
163 [label="mse = 0.0\nsamples = 1\nvalue = 2.4", fillcolor="#e68641"] ;
162 -> 163 ;
164 [label="mse = -0.0\nsamples = 2\nvalue = 2.3", fillcolor="#e78c4a"] ;
162 -> 164 ;
165 [label="mse = -0.0\nsamples = 1\nvalue = 1.8", fillcolor="#eda673"] ;
157 -> 165 ;
166 [label="SepalLengthCm <= 7.45\nmse = 0.017\nsamples = 4\nvalue = 2.425", fillcolor="#e6853f"] ;
148 -> 166 ;
167 [label="SepalLengthCm <= 6.5\nmse = 0.0\nsamples = 3\nvalue = 2.5", fillcolor="#e58139"] ;
166 -> 167 ;
168 [label="mse = 0.0\nsamples = 1\nvalue = 2.5", fillcolor="#e58139"] ;
167 -> 168 ;
169 [label="mse = 0.0\nsamples = 2\nvalue = 2.5", fillcolor="#e58139"] ;
167 -> 169 ;
170 [label="mse = -0.0\nsamples = 1\nvalue = 2.2", fillcolor="#e89152"] ;
166 -> 170 ;
}